127 10 4
-0.36895186 -1.640736 -1.6270432 -0.26412416 1.5479537 -0.57365984 1.518762 0.85384154 -0.5435569 0.62432593 -0.2370676 -0.24792956 -0.57984674 1.3212216 0.63926727 -1.6443769 0.49517924 1.057089 -0.09950896 -1.1656026 1.0682808 0.13961254 -0.24306071 -1.0702868 -0.3335908 0.29890692 -1.6235707 1.2482331 2.389782 0.661945 -0.066246584 0.4951489 -0.58785856 0.7480713 -0.35239488 0.7871419 -1.0156964 0.5118192 0.13826865 -1.8545843 -1.0552748 -0.7400516 0.06572594 -0.058542475 -0.3295444 0.4239648 -0.027883157 -0.1627997 0.13563193 0.28445333 -0.5761853 0.8533071 -0.62041336 0.24051437 -0.49462146 -0.23223552 -1.6310146 1.3061179 -0.8674964 -0.46631688 -0.41618383 -0.4001559 1.154862 0.7286323 0.034408644 0.6888387 -0.9572956 0.7512817 -1.198601 0.16564986 -1.4496604 -0.8998263 1.5658865 -0.49122965 0.98118734 0.21950951 -0.10570344 1.4349028 0.43609688 0.34422994 -1.8334122 -1.6032958 -0.88415825 -0.6456909 -0.010772854 0.73627704 0.21321246 0.11386956 1.1852239 -0.7777668 -1.7475706 -0.041665226 -0.83747256 1.1703539 0.6550966 -0.8103862 -0.1692573 1.5007093 -0.26095593 -0.7282571 -0.11257121 -1.3329245 0.1998804 -0.6267201 -0.33269203 0.86480963 0.24833989 -0.45746422 -1.7190509 -0.119553655 1.0817319 -1.3553677 0.3498541 0.08254105 -0.917955 -1.0470014 -1.4138608 -1.1378213 0.481884 2.3159533 0.5617112 0.5500105 -0.149266 0.51324487 0.5019086 0.15713808 -0.7201309 -0.15702459 -0.21234737 0.061644718 -0.9020221 -0.3892614 -0.7764856 0.046405718 0.21655479 0.41929126 0.35817146 0.36072206 -0.25369227 -0.23939395 1.3623447 1.0244873 -0.5978 -1.0575081 -1.7748357 0.38635516 -0.48107365 1.9851705 1.3606659 0.17999591 -0.097025305 -0.37174577 -0.656219 -1.143573 -0.85855764 0.5368303 -1.2284876 -1.0851771 -0.98512495 -1.5885066 -0.36701345 -0.86760473 -0.2700317 2.4716766 -0.5076119 -0.8356155 0.3003146 -0.553769 -0.6506521 -0.849788 -1.355987 -0.015748203 -1.3018973 -0.80215234 0.15444615 -0.927658 1.1232588 -0.041062474 0.069337875 -0.8372084 -0.6952718 -0.91320664 -0.12307052 0.0953328 -0.96300507 1.2729242 -0.83625007 0.17458463 0.37205595 0.44120067 -1.3008116 0.17802624 -0.6932691 0.3565298 -1.2379026 -0.10662043 -0.14835992 0.09894855 -0.031243227 0.3269442 0.20569703 -1.6248777 -0.052488074 -0.6036052 1.4738805 0.6977345 -1.1190845 0.64647675 -0.5764439 -1.3699473 0.8755486 -1.6422665 0.11646259 0.24004592 -0.0484986 2.0833564 0.94629043 -1.2734387 2.21989 1.7021586 -1.5246711 0.5386652 -0.94408715 0.8827168 0.24507621 -0.63687056 1.073323 0.6787958 -0.80499613 1.4000481 -0.4176495 -1.5273646 -0.6793403 -1.0930643 1.0891877 -1.1745714 -0.13337512 -0.6364342 0.6405104 1.5285534 2.428634 0.014927238 0.62765855 2.2071812 0.78489554 0.6099336 0.68570364 -0.24150597 -1.0001726 -0.19053787 -0.24085072 1.399672 -0.88515127 -0.49106875 0.84063226 0.6422099 0.96943593 0.65326965 1.2415587 -0.9818975 -0.7124482 -0.47858328 0.19137466 0.6492535 -0.061607182 0.83980703 -1.2567855 -0.21853034 -1.229977 -1.6122537 0.76964796 2.167434 -0.39477515 0.53422904 1.9979678 0.08278352 -1.4017059 -0.18848248 0.9802462 -0.4388691 0.64673746 0.6243393 -0.5201191 -0.27503923 0.8228034 0.8798273 -0.8368761 -0.4857155 -0.9560673 0.9093893 0.5309507 -0.49578327 0.038308315 0.56769454 -0.79032826 -0.5812981 -0.3095377 0.3093471 -1.2378972 -0.03501977 1.384274 0.18431441 0.32284856 -0.5541972 1.3743962 -0.37789136 0.4372342 -0.74591273 -0.11145538 -0.97039825 1.2555255 1.19294 -0.13414769 2.0540426 -0.0013074428 0.48971385 0.66311014 -1.4167773 -1.313684 -0.53240705 1.7043277 -0.32357764 -1.3789738 0.9369609 2.105033 0.37509012 1.4323872 -0.41082674 -0.48031425 -0.45239356 -0.44955128 -1.83082 -0.4654795 1.2462745 -0.54931766 0.76482433 0.13246632 -0.22848134 1.5005553 0.104181096 0.2577222 0.6419424 1.2148465 -1.6448568 2.016751 -0.9779361 -0.48530248 -2.0671122 -1.8607708 -1.0320096 1.7083822 -0.8423507 0.9077997 0.74424255 0.40322 0.73646355 -0.43506157 1.7136356 -0.06677599 1.2787365 1.344351 -0.5508894 0.10443924 -1.2617953 0.78820854 -0.63472646 0.26947784 -0.52142036 1.2122645 -0.4849795 0.9493265 1.072593 0.039404616 0.47193426 0.5962967 -1.0562432 0.58539397 0.49399215 -0.3412153 0.61941856 -1.1286488 -0.0109145045 1.0449723 1.4381157 0.21871276 -0.2848897 1.2524326 -3.150945 -0.9045175 -0.51865804 -1.2997419 -0.5006813 -0.36366832 0.3276549 -1.0728574 0.67749333 -0.6957861 -1.270955 -0.37791646 0.21857668 -1.6728042 1.2406344 0.6876834 1.2467412 0.59231687 -1.1708732 -0.19747743 -1.5750453 -1.8170239 0.10456771 -0.37295586 -0.25235492 0.051842153 0.8279671 1.233836 0.74117863 -0.49516326 -0.4727615 -0.48029095 -0.2558838 -1.1257323 1.5848624 -0.663995 -0.37291193 -0.13483848 0.38248467 0.7048675 -0.16371682 -1.4481853 -1.6780505 -0.7166797 -0.83163494 -0.34205246 0.7843309 1.7080773 1.6301917 1.7101113 1.7507539 2.0369449 -1.157928 -0.9492873 0.39748108 -2.4014232 -1.2283361 1.5259508 -1.2000943 0.018885687 -0.8913234 -0.8680532 0.21623406 -0.44888407 -1.0600492 -0.56446147 0.6799019 -0.1211897 -0.90193874 -0.15472938 -0.585584 -1.6068802 -1.0842509 0.34765568 -0.23746724 0.56363666 0.80225176 -1.2402099 -0.42662624 -0.33917195 -0.86769927 0.0792809 0.19340734 -1.4326059 0.22071196 0.09968366 1.2544965 -0.6643994 -0.16784792 -0.7367464 0.44071123 -0.25540066 -0.77491224 0.052189738 -0.4076006 1.4643368 0.51116467 -2.0209444 0.22149102 -0.3326259 1.3306646 -0.13074705 0.028698102 -0.17364007 1.468683 0.10907719 -1.1025324 1.4469148 -1.2164577 0.54816395 -0.22070105 -2.0498526 1.0758793 0.00017400086 0.8549223 0.81147605 0.16352437 0.38123602 -1.1223291 0.29733968 0.9731262 0.4222714 1.1439201 0.06148663 -0.28355825 -0.32998863 -1.2943789 0.022616327 -0.63353777 -1.6231825 0.024316005 0.033346698 2.0407567 0.82550126 0.93377554 -0.65052533 0.9299174 -0.7565665 -0.6038241 1.1741787 -0.8125489 1.5196611 1.0892103 -0.51159453 1.2290738 0.6791876 -0.42778903 2.3501585 -0.4070353 1.1656795 1.3345257 -0.08024567 -0.6894404 -0.8623408 -0.61401874 0.90981054 -0.102422506 1.8947719 1.2041777 -0.06315485 0.71034145 1.6827929 -0.9982979 0.7425777 1.7340697 -0.8633301 0.9510221 0.54482484 -0.3454407 0.5709546 -0.010607272 -0.5412898 -0.0060802475 -0.7349273 0.11657658 1.4532466 1.1016263 1.2622919 -0.3621468 1.3752571 0.4340763 0.7368123 1.0947201 0.42224956 -2.456743 -0.6524427 0.48869753 0.3794269 -0.105800346 -0.61651266 -1.2660291 -0.6986767 0.6624331 1.0537671 0.816867 0.6847025 1.203893 0.5716977 0.23309869 0.24472533 -0.85916543 -1.2786206 -1.1095386 -1.3153569 -0.24111338 0.96588993 1.1104441 -1.3531936 1.0409083 -1.5323082 -1.0686169 -1.3772738 0.12346712 1.0256839 -1.55834 0.050348274 0.9466254 -0.39089525 -0.29701865 -1.0285896 0.18884316 -1.2179631 0.089800686 -0.53450954 -0.18790859 0.40160352 -0.6938606 -1.6633564 -0.608809 -1.3345791 0.6095495 -1.7110918 -0.52589786 -0.3225236 -1.0782531 -1.1971427 0.46026218 -0.36653823 -0.4034043 -1.4085038 1.7572474 0.45555702 -0.2003558 -2.8779345 -0.58334374 1.1526057 -1.2283348 0.57019436 0.95703834 -1.1363553 0.79503024 0.33259463 -0.19723552 0.1253376 -1.6476648 1.0464845 -0.5813285 -1.5067805 -1.0502805 0.88398784 0.73471606 -0.80855703 0.96386874 0.18253455 -0.15472652 -0.15661632 1.0299361 0.19695924 0.27646464 -0.5108627 0.33741224 -0.17053209 0.39820272 -0.94939387 -0.16846335 -0.45460558 -0.8165937 1.2622023 -1.6830813 -0.8287356 -0.6100526 -0.010315195 -0.6449108 -1.6705472 -0.6825572 -0.22671181 1.3713154 -0.08875285 0.9150479 -0.35934275 -0.35165465 0.7572437 -0.14566804 0.0008406341 1.5658154 0.89600724 0.7763798 -0.0062091425 -0.43159258 0.7585863 -0.430872 -0.012101293 0.24394985 -0.7264332 -0.115859464 0.13757518 1.1607463 0.8899472 -0.5977892 0.092906564 -0.77333754 -1.753606 1.0426297 -0.5339072 0.76637197 -0.48235765 2.075208 0.26811725 1.7428452 1.6122844 -0.40638655 0.8254037 0.2549112 -0.5599459 -0.38056982 -0.28945068 -0.8464948 0.5887823 2.1036623 0.657081 1.2455816 -1.1441562 -0.8591823 -1.0195767 -1.7122585 0.35045302 0.6380293 0.17968109 -0.46814215 -0.3081274 1.7184242 -2.349429 -0.805296 -0.5554876 1.2879683 0.87075627 0.38568825 -0.24106203 2.9424238 -1.2087169 -0.64732987 1.7388333 0.027212784 -1.5220152 0.7131774 0.0020483136 -1.4003726 0.8781207 -0.12822065 -0.9380738 0.25917804 2.983968 0.4870182 0.100618735 -0.6072914 0.24897219 -1.3766084 1.384874 -0.48319852 -1.4560149 -0.085151196 -0.30560744 -1.2168789 1.7367332 1.4565148 -0.114117965 1.8040906 -0.050351366 2.17033 0.9913191 -0.93952644 0.30980444 -1.3927118 -0.6880195 1.052062 -0.52908146 0.001960732 1.0912787 0.71800846 -0.97429585 -0.30852765 0.83694875 0.28780246 1.2167633 1.2351047 0.81065595 1.5972154 0.4015404 -1.6042751 -0.1093853 0.13202834 -0.006214559 -0.43197143 -0.47562945 0.6425477 0.74434733 0.79754406 0.091973275 1.479565 -1.52568 1.1603457 1.3040257 -1.380015 0.9310943 1.6986785 -0.64323413 -1.1349849 0.46766183 0.6999135 -1.5997936 -0.783135 -0.42054737 1.0502024 0.4277562 0.41172886 0.28864318 0.46185517 -0.40297398 0.3447625 0.5895257 -0.9807273 0.9929563 -1.2240485 1.1280226 0.90457517 0.50603473 0.9343678 1.2722241 0.63156235 0.32819209 0.9995798 0.21602724 0.09147559 1.4621288 0.27410978 2.1129448 -1.1330677 -0.96816516 0.38800758 -0.21592312 -0.6126199 0.39651072 -1.1223066 0.7824694 -0.40817168 0.89320296 -1.6812154 1.3617489 0.39540085 -1.0031374 0.08780749 0.7335768 -0.3523452 1.8854207 1.443965 0.77250135 -0.1337295 2.1112022 1.2637254 0.5738952 -0.008872896 2.5749688 -0.33503875 1.6725203 -1.1707264 -0.16879061 -0.325041 1.2208906 -0.09704959 1.4192946 1.0106969 0.027753606 0.01726143 1.012336 -0.98093224 1.1154325 0.3173287 -0.22131673 -0.111894384 -0.63183105 -0.2881247 -0.04391408 -0.2547529 1.193237 0.33319795 -0.42912948 0.1583223 0.482647 -1.08491 -0.7464654 0.3520778 2.5370538 -1.5048848 -0.042445302 -0.7211822 -0.01702179 -0.091729596 -0.49567205 -0.27356905 1.2209314 0.1267093 -0.7689557 -0.53511834 -1.7533532 -1.2077185 0.19345436 -0.5608155 -0.14180689 0.6167923 -0.074080095 -0.09968053 0.70875883 1.7955414 0.3758132 1.706163 0.41384938 0.4673126 -0.6831719 -0.06932588 1.6114346 0.09823399 1.2459216 0.56098115 0.28417805 0.09530544 -0.33631372 -0.71170986 1.3602352 0.70846206 0.06680538 0.27573264 -0.8377419 0.16204056 0.5009191 1.1610018 1.1085135 0.5584208 -0.65770406 0.07820982 0.45771378 -0.6325783 0.3019976 -0.49247932 0.82762223 -0.23735437 -1.0150102 -0.05591075 0.37775004 0.64486337 0.51322037 0.50664896 -0.5262692 0.26729625 1.1117721 0.765257 0.62338006 -1.4642814 -1.5359201 0.37769613 0.10675239 -0.43671042 -1.6524884 0.4150945 1.0270685 -0.6113663 0.09871386 1.0558823 0.16754341 0.3681457 -2.155316 -0.30384153 -0.43893206 -0.7967123 0.0740854 -0.9790474 -1.2141011 -0.86980355 -0.40072286 1.4554943 0.1948875 0.5595815 -0.79894596 -1.3481951 -0.26198474 0.2859136 1.6945769 1.6992382 0.31880948 1.2626927 -0.3000347 -0.048038766 0.25927776 -0.40440017 -1.2467874 0.9596942 -2.8118546 0.33259344 -0.8877767 -1.0441593 0.1613656 -0.40182865 0.51219356 -0.8405456 0.12491427 -0.59725356 0.6409042 -0.18773507 -2.422866 -0.94723296 -1.0657984 0.36939308 -1.5020896 1.6222131 0.356129 -0.7431894 -0.7954338 0.9268263 0.1911814 1.2616363 -0.3809064 -0.074572116 -0.11479408 -0.22281456 0.20186494 0.4487291 -0.34953728 -0.47479478 -0.4808265 0.6926093 -0.26933897 0.19814165 1.1251065 1.1340584 -1.5695312 1.3154027 -1.0420079 0.8671591 -0.769001 0.3277809 0.9143381 -0.65601254 -1.237185 -1.21876 -0.91601306 0.49910885 -1.4216896 1.456169 0.2733155 1.4386727 1.8442476 -1.4870187 -0.67618835 -0.9736762 0.03474526 -0.11460832 -0.4944785 -0.9578526 -1.2483637 1.732127 1.7228358 -0.7490558 -0.9852129 1.1908634 0.66335285 1.3574389 -0.23260133 -1.48097 -1.234585 -0.109347835 0.2447508 0.3922267 -0.61726916 0.009504139 -1.3607116 0.90489244 -0.6529337 -0.57204217 -0.298235 0.41672015 -0.1751731 -0.330855 -0.48838043 0.83547497 0.8944237 1.2378109 -1.1087744 1.4378974 0.1600132 0.38692737 -1.1284953 0.3078224 1.9858848 0.121160984 0.60137635 -0.31914234 -1.4587752 1.3099724 -0.14265133 0.46732816 0.5563241 -0.88346237 0.73033637 0.8919988 -0.60903937 0.35102817 0.4488146 0.14943078 -0.56291693 -2.1957002 0.9165624 -0.8852717 -1.7503185 -0.45981702 -1.4311097 2.1512685 0.37591603 0.24140081 -0.6137732 0.8425197 1.5627947 0.0031377673 0.39547056 1.3111528 0.5646843 0.38956195 -0.75705254 -0.072776034 0.59225523 -0.48542547 -1.1752473 0.26930422 -1.5787967 0.19909191 0.008849405 -0.07180934 1.0661442 0.93346035 -0.43443507 0.3426983 -0.93813884 0.29062206 -1.7278676 -0.59943247 0.1929272 -1.425205 0.62741184 -0.12600212 -0.5468693 -0.09033869 -0.9425413 -1.2501436 0.18445715 0.37550926 -1.4350338 1.8091002 -0.36437762 -0.19100508 -0.5686827 -0.65044314 0.6743309 -2.0854068 -2.1008887 0.724056 0.13123497 -0.9682342 -0.7165154 0.5805099 0.09026755 0.060839325 -0.6198859 -0.51905155 0.34197772 0.6982796 0.779585 0.706154 -0.7742269 -1.0608404 -0.3989129 0.80323344 0.4256252 0.031014718 -1.47761 1.248793 -1.7921807 -0.23719244 -0.4232549 -0.92599416 1.3162105 -1.6033903 -0.37479615 0.23967546 0.085391924 0.95123017 -1.1428771 -0.80665445 0.0074041635 0.04440108 0.99646556 -1.1757634 1.3555357 0.2958027 -0.15108788 -0.18952447 0.616767 0.44245028 -0.19585255 -0.060434267 0.6652191 -0.18265334 0.94293594 -0.4221716 0.2443337 0.07154374 -2.5843296 -0.21241914 -1.4330878 -1.2623819 -1.142414 -1.8263001 -1.5419384 2.0935862 0.18098547 1.9634573 0.48855102 -0.55862707 -0.9731956 -2.100216 -0.04686424 0.31809357 -0.27879822 2.5001273 1.8919529 -1.1427512 -0.73824346 1.0498774 1.9929374 0.031633794 -0.37217462 0.06778063 0.3934322 -0.70247006 -0.2437625 0.67828214 -0.06291248 -0.34654984 1.0706851 1.0295113 -1.4243385 0.30814177 -0.9376011 -0.018208437 -1.089886 0.20008366 -0.030467853 1.256916 -0.61235404 -0.70774436 1.8836865 0.21100998 0.6700751 -0.29662383 0.5380573 -0.5333767 0.1932596 -0.3415795 -1.05252 -0.8142608 0.09298645 -0.19560489 0.13576245 1.9150251 0.041120842 0.6950683 
0.05540873 0.22079237 -0.33156508 -0.09705976 -0.17289138 -0.33000776 0.2571625 -1.0173255 -0.15994579 -0.42277798 
-0.9301417 0.6939854 1.7972058 -0.1799941 0.7829946 -0.08283983 -0.41076565 -1.480468 0.65338683 -0.4947062 1.7389402 -0.019575998 1.0095195 -1.7003026 -0.0022670776 -1.4950836 0.4529899 1.7963706 -1.323417 -1.3830655 -1.8730557 1.6269066 1.8442026 -1.8298514 0.1331924 0.9080678 0.7309926 -1.3364024 -1.1915476 0.5325892 -1.3076546 2.7081468 -0.8420486 1.2793963 0.34391582 0.5767161 0.6192117 -1.2393492 -0.44873756 0.44391948 
-0.8775104 -0.2261232 0.28233898 -0.177241 
