6 10 4
-0.9044571 3.3785653 -0.48004842 -1.177072 -1.9897077 2.5367422 0.28459275 -0.9135493 0.4374913 -0.48954427 -1.1718475 3.491187 -0.8100536 -0.38452613 -2.0864968 -0.8044975 1.0270371 -1.8087877 0.9923575 0.5873792 0.9898555 -3.0464435 0.12115681 0.87317395 -0.86822987 -0.2343849 2.3741868 -0.1309377 1.05526 -0.6268718 -0.37589312 -4.2609386 3.6952167 -1.0408729 -4.108378 -1.3527482 -1.3705152 2.7702112 0.0736717 -1.5229787 2.6361153 0.28679335 -1.4165916 1.1510558 -0.15672481 2.2084556 -4.0164065 -3.37845 -0.3618574 1.8161294 2.599031 0.34005237 4.5321717 -1.6545162 -1.7726684 2.2071373 -1.1551468 1.8548769 0.88719845 -2.1531663 
0.30936658 2.0326028 0.41200542 0.93870664 -1.1690162 -0.24365902 0.02318108 -2.2958715 0.58952 -0.10365939 
1.4894937 -0.42371106 -0.7277577 4.9848976 3.724619 -3.3364758 0.8642266 0.50047576 -3.6041195 1.0485389 -0.35706782 -0.13373375 1.009998 1.6875032 -0.33415723 0.8129933 0.6478008 -0.52180064 0.68181527 0.017892003 -1.5001675 -1.8502356 -2.6442375 2.2409177 -0.39178836 -2.5408823 -0.2954749 -0.22766483 0.61784124 1.873249 -0.6958363 -1.283902 -1.3398513 -0.21458232 -1.196386 0.22368133 3.5089884 0.56290984 -0.7349452 -0.6897546 
-1.7374029 2.0880265 2.1794362 -2.335091 
