127 10 4
3.9213047 -10.993188 -3.237997 3.871179 1.7988698 6.122905 -2.148206 3.6692562 7.1915603 -1.2491765 1.6928234 -9.279911 -1.5121725 -2.5732887 2.6014936 4.443198 -1.857168 -5.676966 -4.924584 -0.72368944 -2.4883254 0.6751114 -8.605743 5.996673 3.0059552 0.65797204 1.6172171 1.5976564 0.17341438 3.7022955 -2.6874065 -5.8374376 -2.23064 4.2313704 3.1293278 1.812089 -7.173004 0.7101669 -0.84461045 2.5286176 -4.10708 -2.4245152 -3.9602363 2.417682 0.04639834 -0.06690095 0.6689943 4.051443 -1.7939467 -0.88019544 -2.5798972 0.07962835 -7.194656 -4.2350693 -1.1175573 10.680571 6.5259213 1.3216382 -4.333324 4.136335 4.6480584 -0.5751356 -2.286123 2.3183315 -4.3430114 -2.467318 -1.0645692 -5.3084364 2.727895 -0.1627915 4.759958 -0.11416316 -4.1097736 10.7880945 1.2647283 0.1295654 -3.5648813 3.0737252 2.596476 -5.341249 3.0648687 -4.4096003 8.672579 1.8928502 3.759644 -3.1020381 3.2092369 11.366364 -11.522668 -2.7630146 -2.0176759 -6.409133 -5.2695665 7.334624 1.7073054 0.057207897 -1.6625404 -5.4188533 -3.4919114 0.2713773 -0.27534863 -5.0064745 -1.061925 4.2946672 2.101526 3.5088584 -2.0441062 -1.1953652 -4.2821264 7.892528 -1.5363371 3.062805 -0.71918786 -3.8153553 1.2810719 2.725394 4.6888156 -1.5570446 4.148293 8.259677 3.9872684 -2.7885332 6.482774 2.08909 -0.92624015 8.933125 0.54152614 -11.149095 -1.0294495 6.5057373 -3.2391725 0.29323176 -4.712112 -6.4515996 -0.9878368 0.21585444 -0.6727848 0.35352024 1.9276873 1.9320388 0.25819808 -6.566352 2.8639483 1.3250057 -3.0048738 2.2506425 5.0242023 3.2231812 1.8003042 3.8968818 3.205885 3.1240396 3.626143 -0.87327176 2.8049612 2.966021 -2.2650518 -0.66066694 -2.969754 2.6396544 -4.074068 -4.024715 -0.66495955 2.3688388 -5.5047026 1.7628323 1.0258031 -0.97891665 -0.11299664 0.16308323 -1.0157548 -4.37991 -5.771742 1.63618 2.0912116 -0.38477075 5.146314 1.2290115 -4.599978 -3.7795875 7.1963263 -3.0170963 1.7601211 -2.6966522 -1.901607 1.2080747 6.9160056 -3.6715715 1.827077 3.7638211 -0.28769702 -1.0017338 2.6120448 2.9499598 -7.6942077 1.7765878 -6.778447 3.8215575 5.386952 0.9707973 0.7061008 -4.3794074 2.9133105 -2.1545901 6.064856 2.620177 6.230103 0.51565695 6.792702 1.6961331 4.8410563 2.6775508 -4.773313 2.370644 5.479978 -1.5819211 -6.135142 2.5226402 -5.400213 -3.2858472 5.0625434 4.843037 0.15277164 -2.0874934 5.126771 -2.321597 0.59270906 -8.217674 4.4173784 -0.7524031 2.9008389 -0.5737907 11.333271 -3.0586581 4.6886077 6.2827086 -0.57957494 -6.340814 4.6053305 -2.579995 4.367348 3.146776 4.2226224 -5.6268926 -6.78884 -4.3333983 0.07903743 -5.008401 0.5379134 1.9633087 -7.5706873 -5.8275023 4.78813 -0.5564898 3.9763293 4.421319 6.153621 3.9650426 -0.034335494 -2.3810894 0.16656816 -0.8321407 -3.2810068 -3.0306952 2.2308495 -1.4684745 -0.9796845 -2.056234 -7.6420083 5.7272243 5.2535834 -4.62204 5.045529 -1.7566034 -3.0011544 1.0177684 -2.32801 -3.1796439 1.364047 1.6873378 -8.790551 1.4472661 -0.2201567 -2.1980207 0.4205953 3.3588424 -0.54003984 -0.4611953 0.011488318 6.212727 2.6495793 3.8462288 0.7204206 -2.060563 2.2015052 4.3826637 2.1454978 5.079603 -2.4668915 4.046764 0.784153 4.168228 -1.2381423 -5.3251367 6.89002 3.489604 -1.036421 -1.4637814 1.2967712 5.1782584 1.843211 -8.230869 -8.895391 -0.31486073 1.8719503 4.3075 0.1446241 6.396741 4.029486 2.0270576 2.9172928 -0.35735995 -4.4054275 -3.7518907 5.1384525 -5.4936714 -2.1861718 3.3644185 -0.050898552 2.999197 -3.363405 -1.0495985 5.0948324 0.80486774 5.3881598 0.016820714 -1.2343192 -6.43896 0.29702005 -5.100604 -1.9883413 -3.372664 -2.170537 5.7566853 -0.9781872 3.3932471 -7.037867 1.3618042 -6.549952 -3.944759 0.3397869 -4.2588964 -1.8298322 -2.0717912 6.3572135 0.6659733 -0.50211155 1.1205487 1.5045615 1.8646967 2.5508842 1.0731775 -0.7174467 12.191628 3.8224263 -5.2395124 4.365883 -1.2423743 0.3098559 -2.6720848 -5.0321517 -0.7011751 1.9545286 2.7090552 0.7313585 -1.9205503 -3.063484 -3.9300177 0.18867213 -9.214457 -2.5349147 1.2710704 0.56166136 -1.313868 -7.9395847 -4.148597 4.406445 -5.797914 4.171526 -2.1618237 -6.6336374 2.5297832 1.575435 -2.2368474 -2.585324 0.97302926 2.585915 -2.6267622 11.418196 -6.503945 2.3101788 -4.5124993 1.4732876 -0.92617494 -1.0361845 -0.013541013 -5.6691017 -0.9938376 -9.610522 -1.4370098 0.48034424 0.2713087 2.429781 -1.8475841 -8.595017 4.8905716 -2.8369417 -4.878805 1.9134701 -3.8967195 14.233324 -0.8630409 4.917195 -0.9392275 2.6546285 0.30944985 -2.3952856 -12.696179 -7.662972 4.072674 2.208817 1.7664523 1.1541461 3.1859424 9.249899 -5.0501075 6.423689 -3.3861077 1.1730939 2.245844 -4.7972 3.1885457 4.555229 -1.7874819 7.218192 2.9732516 5.151336 -3.5759792 -5.3658915 -0.33808374 1.5889388 -0.27519256 -0.3088803 2.132979 0.69118387 -2.9693182 1.5769095 -3.8674505 7.9867425 -1.402643 -5.6469975 4.011381 -0.10377258 3.563296 -1.2604057 6.0152626 -2.6234097 6.39679 9.521391 0.16297819 6.042515 -3.9334464 -1.4777985 -6.0712214 -2.6723917 -6.652138 2.516518 -0.77858055 4.948293 2.5525715 0.50190437 6.7088575 -2.1584735 -0.17659333 8.562619 -8.280165 -1.5977206 8.774858 -5.4426565 0.8190373 7.611624 0.84036547 6.3301797 -0.73009133 -5.153085 -2.8687406 -0.03527683 -3.325779 1.1410437 -8.606679 -2.0423815 0.25510055 2.322034 2.2158282 -1.3755232 2.2503264 -0.524157 -3.1817298 1.0190125 2.214967 -2.970919 0.8339677 -5.346524 10.21598 -10.830934 3.0468578 3.2139618 -3.4311557 -1.1574461 -5.314108 0.24900825 -6.5187597 0.5367659 6.561496 3.4911585 -3.1681454 8.834541 -1.7637587 -4.5271955 -1.5859761 -2.7267666 -3.9405813 1.894355 0.84432304 -2.1017687 -4.2333117 4.642337 0.8202073 0.9251402 0.3075785 -2.9799557 -2.0458987 5.277214 2.0798523 -3.6934133 7.593835 -3.3596115 6.4953213 1.2520471 7.321781 5.633 2.4701016 2.0423746 -7.8248696 -7.4910917 0.22044727 -0.8683116 -10.793877 8.526131 0.25735497 -6.7551765 -2.9250176 2.8201087 -5.7161665 4.2040925 -6.2655177 -1.1953826 0.8952442 -1.5972188 -1.5291177 0.9221214 7.8578773 -1.5471423 0.74012667 0.086333245 7.3372784 0.6657779 -2.7406337 2.0069618 -6.5749803 -1.9056861 -7.0854015 9.227781 -3.0514655 -1.8655872 1.3624115 6.1027746 4.6761684 -0.23154664 0.5422536 10.466984 9.000473 4.4542055 1.6949664 1.9738371 6.0850754 -1.1818135 -5.1667876 -3.1005359 5.038445 1.347441 2.3582876 0.9778656 0.95196784 -0.38977695 0.6817314 -4.4593353 -3.8493023 2.3238769 0.66782653 -7.168179 -0.8949538 1.6446669 -18.321228 9.208351 2.354163 -0.42297518 4.3264112 0.28988555 3.3035903 -4.4399147 -2.7826536 -2.16768 -1.6962161 6.5352993 -1.4746814 -3.4406917 5.884748 -1.5298318 1.8453565 -0.66334575 -10.285622 5.396841 -2.1440609 -3.6035213 1.8007977 5.6374516 3.151904 5.362375 4.4445314 3.5378416 3.2675633 -0.9150244 -3.095834 -3.120132 -1.1858546 3.2396832 -0.6598871 -0.9232776 0.13903543 -2.0961242 -1.4622352 -1.9763988 -2.2113988 4.8296676 -2.3282416 1.730134 -2.1083548 -0.003456816 0.5328983 4.2613835 -5.8859997 -0.6668709 -6.8942823 -1.9248424 8.897124 -1.6558554 -2.5905445 -4.375974 -2.5565486 -2.8495734 2.7061346 5.943962 -2.2372303 3.8095944 -0.6582542 3.5394104 1.773535 10.970023 1.0368795 -3.457245 -0.30592757 1.4022822 -3.5388436 -0.61480606 3.2626882 -0.12511057 2.9705665 0.118225634 2.3948512 5.4413953 5.2450323 1.9274099 -7.452806 -2.5043843 -4.3553977 -0.22921401 5.3543425 0.4199472 -1.2800668 0.6611539 -2.3913074 -2.1655922 2.0397096 -3.558609 -1.9316752 -1.6005301 4.293127 -2.3860133 -0.95379525 10.504843 2.191915 -0.84469825 4.739821 -4.861044 -2.4212294 -0.6263695 -3.0457919 -3.0623522 8.826401 -1.7939577 1.1549257 -3.6482751 0.97237533 -3.8981223 -5.7095804 2.9641078 -2.7358599 2.5837755 -0.43271202 0.8659417 7.6751766 -0.38030773 -7.915404 3.0666723 0.45300207 0.30649266 5.347792 -1.0688758 -1.8240602 -1.2699398 0.8378343 -1.8343086 -4.780515 1.9186568 5.1125965 -9.695515 3.2906735 -3.1070955 -1.4239467 1.1543612 -3.4447904 -1.594038 -6.319483 -6.2262564 2.434939 0.27591366 3.8972852 2.9617472 -1.2516792 -0.843073 0.3366531 -0.473135 -0.71536285 -0.5066685 3.7967508 0.90226835 -0.16795027 1.5353014 -1.3346243 -1.7678392 7.9992285 -1.5714976 0.41111776 -3.0981445 5.393694 -3.155667 1.6130989 -6.423182 -3.6592522 0.5439261 1.8399472 8.25608 4.296863 -2.799201 2.2242203 1.6403303 -3.905227 0.12055801 -8.0314455 1.0837865 -4.052894 4.5178094 -5.521046 2.3165977 -4.9967885 0.51848537 -1.3850757 0.16004927 -7.65277 -2.9788523 10.539369 -0.7771186 -2.44372 6.544445 2.4184527 4.157477 -1.4385644 4.9061484 2.9362264 0.75229746 1.2171826 -1.5102537 4.0050926 -1.9765358 -3.404098 -2.7673404 2.1810322 -4.326161 5.9123063 -1.6979268 7.6265264 -2.662467 1.9816674 -3.9417295 -5.2914386 4.785614 2.1317809 -0.27616006 2.1982353 -0.44411552 4.7478266 -8.017868 2.1701999 0.402691 -0.33219233 2.6121302 0.14777727 -2.6663759 -0.8945482 -6.5814724 -0.55737257 -1.1313388 -0.6370402 0.6862072 1.3883291 1.3821273 -8.174598 -0.22734776 -1.3343916 3.2054937 5.7122416 0.61026084 -2.8492777 2.9382272 -0.80536485 -0.13151574 0.626942 -5.4956326 -5.478567 -1.9147346 -1.8971503 -1.8492321 0.6025866 -4.3461404 4.5552077 -4.3530807 -3.5597913 -4.181609 -1.1238407 0.0662145 -0.5365921 -1.3251697 0.70006824 4.7217817 -2.959375 8.171375 4.0064363 -5.034457 -0.7684378 6.2747245 4.1811867 4.849585 -1.4187137 3.2989123 3.898473 1.9234079 5.5320563 9.251199 1.0313678 2.382124 5.668937 3.4975233 -5.8898444 -1.297272 -4.1096516 -8.2046175 -0.7484015 -4.691695 1.6789591 1.2886517 7.6385937 -0.843887 -0.5438294 -0.12136744 -2.6407282 3.4249532 -6.935708 3.947452 -3.6392534 9.323581 -3.973865 0.22430357 2.035326 -1.8616937 -1.2267395 -2.0197947 -5.221079 -4.609906 3.686716 -5.1386023 5.0752234 -0.36482325 1.6636467 -7.0273685 2.612467 1.8230371 -2.057834 -3.2187095 -4.973045 -3.286132 10.052744 -5.3366084 11.500112 2.7052624 -9.690801 4.277116 1.896195 -0.84751964 9.3764925 -1.0010517 0.5133544 0.20758829 -3.0431354 -3.196492 2.1391783 -0.952237 -2.7891607 -2.08344 -1.825019 -4.9912305 -3.8461952 -5.0515766 1.557664 2.4419043 -5.6885524 6.2245736 -3.5656404 6.288315 4.3777833 0.15293828 -2.6853628 -2.933754 3.5427766 0.3179811 0.72423434 -5.185351 -1.5244639 -3.7554128 -5.0568604 2.7844334 2.5358937 1.8044147 -1.2986954 0.1421034 -2.0124924 3.8092394 -0.45815992 2.645887 -0.29781598 2.9921718 2.5913482 -2.909951 -0.2856498 4.326123 2.735398 -1.711951 -7.444413 4.442036 -4.551065 -4.529029 -5.0122256 3.0449386 -7.0589633 -0.010482907 2.8441446 7.006827 -6.7384577 0.84402174 -5.156901 -1.3816918 -0.43843094 -0.5108427 -6.2766285 -0.41558823 3.316727 -2.9543257 0.3284887 -5.1916213 5.669751 -5.875597 -2.0342793 -0.15770572 1.4443395 -7.5973396 6.1791053 -2.935068 -7.171098 5.0813313 4.0102954 2.4445102 5.6731095 -10.148101 5.1973596 -10.889513 -6.1603127 2.1236672 -0.25330865 1.7633057 -3.0884938 -0.40730575 -3.1802623 0.8676723 2.0282276 0.015942633 -3.7457013 0.81911194 -5.637015 -4.27731 1.9741311 -1.5585644 -0.41033253 1.7128351 5.220413 -1.4084572 -8.054675 6.318633 1.1774204 4.7026405 4.935936 6.4533644 -0.69442624 9.884961 1.4858154 -7.3012023 -1.48272 2.2157102 3.8249166 0.26718697 -1.0497633 8.27594 8.124861 4.076291 2.1740673 4.069342 -2.2488756 0.8838575 1.5784202 0.3443306 -0.6572317 1.1507922 -0.2988283 -2.2665305 1.6637561 -2.689095 3.4673107 -0.8970183 1.8207395 -1.0973396 -5.491478 0.92158914 7.696865 -8.6938925 -0.2450777 2.0210974 -5.311884 1.0693834 6.087025 2.5606427 -2.4010932 -1.5324368 -1.292846 -1.5419716 -3.9293287 2.5852692 -3.8369997 -3.8191483 -0.4004316 2.8401244 1.9931409 6.0534034 0.8521824 2.0034323 -0.23738024 -0.6744588 2.3478582 6.842707 4.2830687 -3.3564963 -1.9607401 4.3066893 2.4714656 -5.3613796 -3.07063 1.4081564 -8.282685 0.6183902 1.37472 1.4995388 -5.7853203 -4.332331 1.4370561 -3.78133 -0.5659932 0.07678887 -0.93268013 4.1501265 0.3103455 -4.4966736 -3.3822408 -1.9717103 1.5764132 -6.735315 5.4276876 0.389277 -7.1151023 6.797582 0.15832837 -2.6018202 3.365869 0.16736606 -6.3440485 4.63123 -5.0912523 0.79273826 -1.9250821 6.468807 2.1104739 -3.260697 -0.12855078 -3.004332 -4.7597446 0.31579727 1.332837 1.0172635 -7.5877113 -3.0637507 2.1843095 -4.417055 8.778089 -0.19814688 1.6071434 1.8006866 6.956065 -6.426993 -1.8869772 -0.93620783 5.1360917 1.9574659 2.47426 7.560645 5.202318 -5.7924953 0.679358 -4.399806 -2.6336432 0.09036595 3.9401243 0.6772319 1.4828262 -3.381291 5.5254416 -7.511687 -3.816079 2.1854007 -4.645514 -5.0505795 -0.3045887 2.5727189 -7.0700855 -3.9654279 4.187469 2.1977406 -0.4203831 0.7728584 2.3315496 -4.846999 0.093871325 0.10085547 4.5849366 0.97004724 -4.728075 3.663752 -2.5104496 -5.4101844 3.9099107 -5.4348254 -5.0734816 -2.59902 1.3192248 -2.0252774 -6.7913 9.107952 -10.185874 4.766069 11.209116 -6.291629 2.5079122 -0.6983164 6.1672893 1.8733044 -9.320121 -9.762497 10.679426 7.304054 -16.841345 -5.5824637 4.7235136 6.456818 10.618998 -6.26813 3.1459494 6.6328573 -20.203981 4.2103868 3.0565045 5.6757727 -3.7437775 6.3508177 -3.3051758 4.2402115 -7.943702 -2.131255 0.9633412 6.5962577 -4.3338313 -6.8165627 9.408026 6.207354 7.9743485 -3.2778435 -3.4608014 -0.8447844 3.308431 -5.5639133 -0.070785135 1.6395977 1.9812548 -6.816802 -2.9051328 11.964693 4.5625954 2.673493 4.9130526 -7.120008 1.2666335 -7.576661 -4.34766 -2.1341739 -2.6688132 
3.6782267 3.464418 -0.6351223 -2.356587 -3.2673452 3.8204453 -5.3658986 -1.6908855 8.045754 -2.5013356 
3.4890614 -0.03312184 1.2489414 -1.144142 12.881673 -4.09853 4.390835 -11.211002 3.6359842 -3.2720108 0.6640396 0.42362922 -7.2901735 12.216554 6.369337 -10.701445 2.594642 2.400755 -0.803229 2.9754465 4.2324386 -8.878973 -3.4687068 -0.63540876 3.1877344 -2.4026859 9.531016 0.26915264 -5.3160377 5.4147754 1.8961841 1.2472559 -0.28319854 -3.8564303 -2.661792 -0.6320162 -8.964612 8.091667 -10.027971 5.670178 
4.413967 2.3877292 1.2997816 -0.35881233 
