6 10 4
0.14522314 -0.20135903 0.28405344 0.024900436 1.3826816 0.51713514 0.3503158 -1.276863 0.4832697 -0.17881668 -0.76454496 -1.1485951 -0.73267007 -0.21526241 2.2317934 -2.6200051 1.9662842 -1.2481247 1.6096838 -0.284423 0.105133295 3.8461838 0.74114895 0.6450547 -1.6850538 0.42948067 1.1634375 -1.0865659 -0.25029337 1.2932699 -1.402503 1.8231945 1.7369736 -1.386805 -1.9828758 1.0335149 2.0889623 2.8266416 -0.29021955 2.180995 -1.4719583 -4.6072416 0.09250212 1.1530367 -4.1728735 -3.3767755 2.2822988 1.7667315 0.08051109 -2.285603 0.93269885 -0.045149207 -1.165845 -3.5921416 -2.3419104 -0.08113253 -3.1554918 0.1122154 -4.1403823 -1.6194972 
-1.0114399 -0.53611994 -1.2498437 -0.867206 0.18069029 -1.2303098 0.39753187 -1.5089881 0.083349586 0.6166197 
0.20621932 -0.9052614 1.0160925 1.9549645 -1.1166631 1.8084217 1.8050182 -0.9809909 0.4740275 1.3407981 -0.86406183 -2.2642624 1.0120918 -2.2387743 -2.7035613 -1.6124623 -0.25611293 -1.5734725 2.6823397 -3.114746 -1.0308238 3.4076371 -1.2430371 0.58940387 2.3984895 -0.38498878 0.44690287 0.5003493 0.86078036 0.22400868 -0.87250054 -0.68629706 -0.08321285 -0.2675283 -1.3307056 -1.1605374 -0.45918226 1.4324076 0.82345855 -1.1976227 
0.29063988 0.62276626 -0.74795246 -0.22786343 
